6.446050 -0.374393 -13.589371 -14.007690 
6.579000 -0.491002 -14.009221 -13.965238 
6.678720 -0.768597 -15.377061 -14.199743 
6.778450 -0.515218 -15.808105 -14.128083 
6.911410 -0.037085 -16.280172 -13.878404 
7.044370 0.317489 -9.232337 -12.561049 
7.210560 0.841580 -9.556606 -12.497526 
7.376770 2.066090 -21.258392 -13.088166 
7.576220 1.762561 -9.012369 -12.243771 
7.842190 -0.764744 20.916098 -1.021457 
8.074850 3.972702 11.217512 -5.407840 
8.307480 4.414171 -22.541367 -11.605248 
8.540190 1.918355 -24.015076 -9.990468 
8.806140 0.149089 26.338879 4.310310 
9.072250 1.664248 9.068292 -7.191831 
9.271670 2.512980 -4.777278 -10.950421 
9.504340 -0.370217 19.079205 2.044021 
9.703780 4.112476 -0.406349 -9.098206 
9.869980 2.518111 1.848216 -9.457843 
10.036170 2.608758 1.489224 -9.497191 
10.235560 1.901677 0.666549 -9.882921 
10.468150 2.138715 -5.036713 -9.743746 
10.700700 1.783809 -4.571342 -9.921707 
10.966510 2.485218 -3.434680 -9.814274 
11.232320 3.331094 -4.176194 -9.494689 
11.531380 3.122755 -5.078805 -9.596701 
11.797190 2.965045 -6.268704 -9.659818 
12.062980 3.005159 -6.999374 -9.740848 
12.328770 3.189464 -8.111456 -9.776311 
12.594580 3.355814 -10.571091 -10.058626 
12.860410 3.445802 -11.929751 -10.083271 
13.092970 3.434034 -12.915048 -10.128165 
13.325580 3.425918 -13.527036 -10.119418 
13.591400 3.373832 -14.237368 -10.205557 
13.757540 3.263176 -14.620500 -10.276607 
13.890430 3.233912 -14.653695 -10.301881 
14.023330 3.235033 -14.717786 -10.305608 
14.189480 1.935654 -15.280534 -10.015082 
14.322390 1.914220 -15.300530 -10.005836 
14.455340 1.913771 -15.325089 -10.000443 
14.621460 1.924296 -15.339692 -10.027883 
14.754370 1.917577 -15.340884 -10.047399 
14.987000 1.911478 -15.403533 -10.038065 
15.186360 1.950261 -15.576592 -10.063504 
15.385690 1.650302 -17.205656 -10.208778 
15.751250 1.637195 -17.325193 -10.116042 
15.950660 1.588484 -17.413940 -10.082942 
16.116840 1.580814 -17.381302 -10.077615 
16.283000 1.547863 -17.624462 -10.072370 
16.415950 1.536959 -17.616762 -10.062363 
16.681840 1.112558 -20.093422 -9.969359 
16.814780 1.109977 -20.140776 -9.961723 
17.047420 1.064827 -20.638506 -9.993185 
17.180340 1.069364 -20.677296 -10.018320 
17.313280 1.079612 -20.700813 -10.007964 
17.446200 0.790421 -27.178778 -11.114218 
17.645620 0.816241 -26.997061 -10.994946 
17.845080 0.916004 -27.339745 -11.098213 
18.077740 1.023300 -27.006353 -10.953360 
18.310390 1.129314 -27.265917 -11.173085 
18.576290 1.239180 -27.907885 -11.744876 
18.808980 1.111167 -27.916338 -11.704188 
19.041670 1.422010 -27.016626 -11.187463 
19.307590 1.323223 -26.469450 -10.845301 
19.573510 1.277533 -26.229916 -10.593974 
19.872690 1.281940 -27.057680 -11.085237 
20.171830 1.474875 -29.196308 -12.900150 
20.404530 1.406110 -29.044413 -12.633707 
20.670440 1.309628 -29.134102 -12.591262 
20.936340 2.871644 -31.284931 -15.555627 
21.202170 2.923295 -31.352823 -15.665372 
21.534540 2.976735 -31.929705 -16.359983 
21.800400 2.837895 -33.778809 -16.442596 
22.033050 2.747468 -33.586559 -16.208767 
22.298930 2.781751 -33.458538 -16.344452 
22.564830 2.974321 -33.507805 -16.849604 
22.930480 2.900561 -33.857746 -16.909672 
23.362560 3.174249 -33.704258 -17.523237 
23.595240 3.107152 -33.774868 -17.398876 
23.761420 3.076644 -33.775215 -17.381159 
23.960820 3.062642 -33.787781 -17.392811 
24.226770 3.052609 -33.878071 -17.438169 
