6.446050 0.003995 0.257456 0.128125 
6.579000 -0.006613 0.233519 0.119127 
6.678720 -0.012747 0.211316 0.110859 
6.778450 -0.015244 0.192636 0.102188 
6.911410 -0.015518 0.173037 0.087892 
7.044370 -0.014738 0.146873 0.077584 
7.210560 -0.010156 0.117738 0.066576 
7.376770 -0.009657 0.091053 0.054049 
7.576220 -0.013024 0.064835 0.043948 
7.842190 -0.015335 0.035295 0.036789 
8.074850 -0.016304 0.012989 0.030085 
8.307480 -0.008944 0.002360 0.023492 
8.540190 -0.007012 -0.002440 0.017137 
8.806140 -0.005580 -0.011368 0.019992 
9.072250 0.002079 -0.020363 0.021144 
9.271670 0.006624 -0.019239 0.021915 
9.504340 0.011103 -0.018368 0.018988 
9.703780 0.011094 -0.017561 0.017948 
9.869980 0.009043 -0.016374 0.017270 
10.036170 0.003934 -0.017154 0.018611 
10.235560 -0.001052 -0.017715 0.018365 
10.468150 -0.001406 -0.007333 0.023592 
10.700700 -0.007190 0.007602 0.031958 
10.966510 -0.006149 0.025747 0.037933 
11.232320 -0.003813 0.036617 0.041168 
11.531380 -0.006529 0.044186 0.042470 
11.797190 -0.009520 0.051228 0.041047 
12.062980 -0.009856 0.058016 0.041030 
12.328770 -0.010123 0.066678 0.042429 
12.594580 -0.011279 0.072416 0.044756 
12.860410 -0.010224 0.077314 0.046383 
13.092970 -0.009677 0.080467 0.046892 
13.325580 -0.009033 0.083707 0.046062 
13.591400 -0.008246 0.084368 0.044737 
13.757540 -0.009132 0.084797 0.043976 
13.890430 -0.009556 0.082609 0.043414 
14.023330 -0.008833 0.078916 0.042205 
14.189480 -0.008309 0.072177 0.041523 
14.322390 -0.006871 0.067541 0.039342 
14.455340 -0.006167 0.067981 0.036784 
14.621460 -0.006422 0.070499 0.037564 
14.754370 -0.006543 0.071411 0.039172 
14.987000 -0.006660 0.077195 0.041413 
15.186360 -0.007435 0.085083 0.044837 
15.385690 -0.007021 0.095638 0.048863 
15.751250 -0.009840 0.110113 0.052411 
15.950660 -0.011405 0.133249 0.057551 
16.116840 -0.011177 0.138664 0.057751 
16.283000 -0.012141 0.140050 0.057178 
16.415950 -0.014025 0.139455 0.055079 
16.681840 -0.015975 0.131745 0.048829 
16.814780 -0.018960 0.124133 0.044930 
17.047420 -0.023062 0.110964 0.039739 
17.180340 -0.023485 0.102818 0.039663 
17.313280 -0.024211 0.094225 0.038571 
17.446200 -0.025609 0.083781 0.037939 
17.645620 -0.025564 0.070846 0.033847 
17.845080 -0.026233 0.059929 0.032258 
18.077740 -0.024380 0.049866 0.029507 
18.310390 -0.022193 0.041796 0.028146 
18.576290 -0.018136 0.034911 0.028843 
18.808980 -0.014526 0.036121 0.029271 
19.041670 -0.013069 0.039067 0.031954 
19.307590 -0.011435 0.041078 0.033406 
19.573510 -0.010945 0.045641 0.034316 
19.872690 -0.011829 0.052171 0.036970 
20.171830 -0.014037 0.056872 0.039849 
20.404530 -0.016527 0.060332 0.041226 
20.670440 -0.017120 0.059503 0.041412 
20.936340 -0.015024 0.056644 0.039188 
21.202170 -0.010446 0.052335 0.036867 
21.534540 -0.007914 0.045821 0.036560 
21.800400 -0.007349 0.037534 0.034344 
22.033050 -0.007096 0.033862 0.031713 
22.298930 -0.007324 0.041946 0.032316 
22.564830 -0.006231 0.054995 0.037171 
22.930480 -0.006414 0.070178 0.043816 
23.362560 -0.007552 0.086004 0.053423 
23.595240 -0.007750 0.092020 0.055394 
23.761420 -0.007604 0.098862 0.057747 
23.960820 -0.006685 0.104482 0.059418 
24.226770 -0.005099 0.109252 0.061951 
