0.012550 0.562982 0.282289 0.416419 
0.012800 -0.379843 0.478549 0.478148 
0.013100 -0.883831 0.719211 0.093444 
0.013400 0.332564 1.296633 -0.300242 
0.013750 0.495184 0.413752 0.677900 
0.014650 0.433754 -0.657676 0.739134 
0.015250 -0.105735 -0.019707 -0.314225 
0.015550 0.243829 -0.414094 -0.005321 
0.015850 0.164533 -0.357522 -0.120630 
0.016100 0.107648 -0.375732 -0.167825 
0.016400 0.114745 -0.318993 -0.184012 
0.017000 0.052063 -0.250693 -0.184753 
0.017350 0.009491 -0.152583 -0.255547 
0.017650 -0.048246 -0.076738 -0.265999 
0.018000 -0.075495 -0.071050 -0.378145 
0.018500 0.075682 -0.284147 0.049545 
0.020600 -0.033327 0.004609 -0.173596 
0.022550 -0.167702 -0.036008 -0.078033 
0.022550 0.058460 -0.393622 0.391285 
0.023100 -0.112805 0.260170 0.258888 
0.023450 -0.136556 0.106980 -0.012217 
0.023850 -0.042331 -0.102760 -0.159403 
0.024450 0.147953 -0.279152 0.012767 
0.024900 0.234787 -0.319466 0.126426 
0.025300 0.223476 -0.265172 0.140018 
0.025650 0.220030 -0.212859 0.121427 
0.026000 0.215877 -0.187766 0.126572 
0.026350 0.275714 -0.329045 0.136340 
0.026850 0.226629 -0.548581 -0.291874 
0.027400 0.004498 -0.266955 -0.678466 
0.027850 -0.104755 -0.027931 -0.811514 
0.029000 0.113431 0.827392 0.495416 
0.029800 0.599278 -0.561081 0.971226 
0.029800 0.598499 -0.558411 0.966435 
0.030400 -0.126099 0.802438 -1.021153 
0.030400 -0.124690 0.755727 -1.065031 
0.031750 0.470594 -1.091287 -0.209372 
0.034750 0.375990 -0.308529 0.394886 
0.034750 0.373923 -0.316289 0.391867 
0.035600 0.112031 0.335475 0.308189 
0.037050 -0.167543 -0.024469 -0.726820 
0.037950 -0.058763 -0.733382 -0.521790 
0.038650 0.064843 -0.842929 0.055464 
0.039200 0.222342 -0.812258 0.108353 
0.040000 0.012561 0.389565 -0.189130 
0.040800 0.412889 0.414058 -0.021851 
0.041250 0.311952 0.349299 0.006505 
0.041850 0.170506 0.295725 -0.045567 
0.067350 0.025712 -0.052199 0.085145 
0.067850 0.047742 -0.070526 0.115284 
0.068550 0.024504 -0.065824 0.162777 
0.069150 -0.003989 0.000738 0.283487 
0.069750 -0.066545 0.049047 0.404286 
0.070650 -0.119641 0.029535 0.431242 
0.071350 -0.113526 -0.116740 0.499086 
0.071550 -0.196492 -0.124475 0.439449 
0.072150 -0.354730 0.009893 0.360518 
0.072700 -0.212555 -0.158369 0.408962 
0.073300 -0.317937 -0.094961 0.506339 
0.073750 -0.300251 0.002786 0.577374 
0.073750 -0.300207 0.002265 0.577550 
