18446744072.064346 0.000000 -0.000000 0.000000 
18446744072.214348 0.000000 -0.000000 0.000000 
18446744072.464348 0.000000 -0.000000 0.000000 
18446744072.614346 0.000000 -0.000000 0.000000 
18446744072.764347 0.000000 -0.000000 0.000000 
18446744072.964348 0.000000 -0.000000 0.000000 
18446744073.264347 0.000000 -0.000000 0.000000 
18446744073.564346 0.000000 -0.000000 0.000000 
0.104793 -0.000000 0.000000 -0.000000 
0.404793 -0.000000 0.000000 -0.000000 
0.704793 -0.000000 0.000000 -0.000000 
0.904793 -0.000000 0.000000 -0.000000 
1.204793 -0.000000 0.000000 -0.000000 
1.604793 -0.000000 0.000000 -0.000000 
1.904793 -0.000000 0.000000 -0.000000 
18446744071.569378 0.000000 0.000000 0.000000 
18446744071.919380 0.000000 0.000000 0.000000 
18446744072.169380 0.000000 0.000000 0.000000 
18446744072.469379 0.000000 0.000000 0.000000 
18446744073.069378 0.000000 0.000000 0.000000 
18446744073.469379 0.000000 0.000000 0.000000 
0.309826 0.000000 0.000000 0.000000 
0.309826 0.000000 0.000000 0.000000 
0.659826 0.000000 0.000000 0.000000 
1.059826 0.000000 0.000000 0.000000 
1.259826 0.000000 0.000000 0.000000 
1.559826 0.000000 0.000000 0.000000 
1.559826 0.000000 0.000000 0.000000 
1.859826 0.000000 0.000000 0.000000 
18446744071.674412 0.000000 -0.000000 -0.000000 
18446744072.024410 0.000000 -0.000000 -0.000000 
18446744072.624413 0.000000 -0.000000 -0.000000 
18446744072.624413 0.000000 -0.000000 -0.000000 
18446744073.224411 0.000000 -0.000000 -0.000000 
18446744073.224411 0.000000 -0.000000 -0.000000 
0.064859 0.000000 -0.000000 -0.000000 
0.364859 0.000000 0.000000 0.000000 
0.864859 0.000000 0.000000 0.000000 
0.864859 0.000000 0.000000 0.000000 
1.414859 0.000000 0.000000 0.000000 
1.864859 0.000000 0.000000 0.000000 
18446744071.679443 0.000000 -0.000000 -0.000000 
18446744072.529446 0.000000 -0.000000 -0.000000 
18446744072.829445 0.000000 -0.000000 -0.000000 
18446744072.829445 0.000000 -0.000000 -0.000000 
18446744073.279446 0.000000 -0.000000 -0.000000 
0.269892 -0.000000 -0.000000 -0.000000 
0.619891 -0.000000 -0.000000 -0.000000 
0.919891 -0.000000 -0.000000 -0.000000 
0.919891 -0.000000 -0.000000 -0.000000 
1.319891 -0.000000 -0.000000 -0.000000 
2.019891 -0.000000 -0.000000 -0.000000 
18446744071.934479 0.000000 -0.000000 -0.000000 
18446744072.784477 0.000000 -0.000000 -0.000000 
18446744073.234478 0.000000 -0.000000 -0.000000 
0.074924 0.000000 -0.000000 -0.000000 
0.524924 0.000000 -0.000000 -0.000000 
1.024924 0.000000 -0.000000 -0.000000 
1.574924 0.000000 -0.000000 -0.000000 
2.074924 0.000000 -0.000000 -0.000000 
18446744071.789509 0.000000 -0.000000 -0.000000 
18446744072.489510 0.000000 -0.000000 -0.000000 
18446744072.839508 0.000000 -0.000000 -0.000000 
18446744073.289509 0.000000 -0.000000 -0.000000 
0.229957 0.000000 -0.000000 -0.000000 
0.479957 0.000000 -0.000000 -0.000000 
0.829957 0.000000 -0.000000 -0.000000 
1.729957 0.000000 -0.000000 -0.000000 
1.729957 0.000000 -0.000000 -0.000000 
18446744072.144543 0.000000 0.000000 0.000000 
18446744072.144543 0.000000 0.000000 0.000000 
18446744072.794544 0.000000 0.000000 0.000000 
18446744073.344543 0.000000 0.000000 0.000000 
0.234990 0.000000 0.000000 0.000000 
0.784990 0.000000 0.000000 0.000000 
1.934990 0.000000 0.000000 0.000000 
18446744071.699577 0.000000 0.000000 0.000000 
18446744072.349575 0.000000 0.000000 0.000000 
18446744073.249577 0.000000 0.000000 0.000000 
0.190022 0.000000 0.000000 0.000000 
0.740022 0.000000 0.000000 0.000000 
1.190022 0.000000 0.000000 0.000000 
1.790022 0.000000 0.000000 0.000000 
18446744071.954609 0.000000 0.000000 0.000000 
18446744072.504608 0.000000 0.000000 0.000000 
