18446744072.064346 -1.592346 1.582115 -1.166845 
18446744072.214348 -1.586493 1.560784 -1.142105 
18446744072.464348 -1.615458 1.700146 -1.251260 
18446744072.614346 -1.601447 1.716288 -1.192856 
18446744072.764347 -1.610681 1.745581 -1.226739 
18446744072.964348 -1.604991 1.780828 -1.199693 
18446744073.264347 -1.576569 1.683335 -1.094289 
18446744073.564346 -1.579326 1.703277 -1.104043 
0.104793 -1.822239 2.487664 -1.792787 
0.404793 -1.845089 2.574968 -1.839137 
0.704793 -1.868628 2.679623 -1.880778 
0.904793 -1.874962 2.702455 -1.893208 
1.204793 -1.897965 2.747619 -1.950228 
1.604793 -1.948117 2.983949 -2.027534 
1.904793 -1.969068 3.042485 -2.071095 
18446744071.569378 -1.082093 -2.058148 -1.488353 
18446744071.919380 -1.033874 -1.690274 -0.602459 
18446744072.169380 -1.014762 -1.560914 -0.322615 
18446744072.469379 -1.018547 -1.624436 -0.428890 
18446744073.069378 -1.014749 -1.441967 -0.162741 
18446744073.469379 -1.014361 -1.345547 -0.041472 
0.309826 -0.998445 -1.728729 -0.398876 
0.309826 -1.001351 -1.711087 -0.391334 
0.659826 -1.004460 -1.708790 -0.402305 
1.059826 -1.009753 -1.725325 -0.444492 
1.259826 -1.001927 -1.655188 -0.329690 
1.559826 -1.003242 -1.658602 -0.338994 
1.559826 -1.006936 -1.664809 -0.362105 
1.859826 -1.003657 -1.624291 -0.301494 
18446744071.674412 -0.601270 0.288506 -0.636502 
18446744072.024410 -0.370219 0.287073 -0.766218 
18446744072.624413 -0.371968 0.298720 -0.762136 
18446744072.624413 -0.371631 0.298829 -0.760714 
18446744073.224411 -0.370505 0.298410 -0.762305 
18446744073.224411 -0.371511 0.303192 -0.754144 
0.064859 -0.374147 0.306122 -0.755479 
0.364859 -0.538944 0.626360 -0.154754 
0.864859 -0.502839 0.614592 -0.255975 
0.864859 -0.513947 0.617011 -0.218168 
1.414859 -0.518773 0.618817 -0.203943 
1.864859 -0.531536 0.619921 -0.162239 
18446744071.679443 -0.197972 -0.379229 -0.601742 
18446744072.529446 0.375174 -0.542281 -0.605222 
18446744072.829445 0.418205 -0.723319 -0.409890 
18446744072.829445 0.408435 -0.802572 -0.326060 
18446744073.279446 0.410437 -0.781153 -0.343907 
0.269892 0.462370 -1.924365 -0.457413 
0.619891 0.833898 -0.970425 0.479124 
0.919891 0.523157 0.473962 -1.039723 
0.919891 0.527741 -0.715837 -0.237043 
1.319891 0.589475 -0.096173 -0.442265 
2.019891 0.555256 -0.037964 -1.189683 
18446744071.934479 -0.373471 0.934159 -0.185077 
18446744072.784477 -0.559415 1.030601 -0.234026 
18446744073.234478 -0.552055 1.036021 -0.278210 
0.074924 -0.638813 0.850585 0.063975 
0.524924 -0.648007 0.817365 0.091384 
1.024924 -0.675710 0.605689 0.189939 
1.574924 -0.662448 0.753493 0.134995 
2.074924 -0.673452 0.715903 0.175610 
18446744071.789509 -0.637835 0.258463 0.025087 
18446744072.489510 -0.471294 0.222502 0.059118 
18446744072.839508 -0.463753 0.223551 0.060189 
18446744073.289509 -0.454695 0.207704 0.076100 
0.229957 -0.441673 0.200079 0.080506 
0.479957 -0.439942 0.192710 0.085527 
0.829957 -0.420503 0.166781 0.095267 
1.729957 -0.420037 0.164512 0.095026 
1.729957 -0.395810 0.142721 0.090534 
18446744072.144543 -0.484091 -0.431479 -0.028306 
18446744072.144543 -0.405642 -0.509384 -0.034588 
18446744072.794544 -0.405608 -0.499454 -0.003988 
18446744073.344543 -0.421860 -0.461010 0.006096 
0.234990 -0.402609 -0.508710 0.026249 
0.784990 -0.395115 -0.532028 -0.005608 
1.934990 -0.380748 -0.542246 0.024346 
18446744071.699577 -0.309470 -0.508533 -0.060317 
18446744072.349575 -0.304074 -0.480258 -0.107673 
18446744073.249577 -0.295935 -0.485151 -0.110300 
0.190022 -0.359069 -0.455083 -0.135130 
0.740022 -0.348777 -0.463611 -0.141533 
1.190022 -0.349431 -0.462991 -0.140422 
1.790022 -0.348100 -0.464067 -0.141288 
18446744071.954609 -0.339649 -0.454399 -0.120852 
18446744072.504608 -0.336837 -0.456744 -0.123340 
