0.012550 13.359169 12.784248 -15.878990 
0.012800 14.227430 13.105288 -9.256313 
0.013100 15.564495 9.073387 -2.840516 
0.013400 10.021952 3.538313 -14.215218 
0.013750 5.242089 23.732622 -6.831151 
0.014650 27.468053 18.456599 -6.825894 
0.015250 56.091958 16.327782 -19.998712 
0.015550 65.282658 18.002470 -13.220664 
0.015850 67.822773 17.236550 -14.510868 
0.016100 67.602477 17.996798 -14.191464 
0.016400 66.014370 19.043115 -13.317907 
0.017000 63.511903 19.448838 -11.640348 
0.017350 61.762516 18.313896 -15.374218 
0.017650 61.255212 19.003902 -14.270061 
0.018000 62.033738 14.938809 -12.977649 
0.018500 49.438304 13.770209 -13.047639 
0.020600 81.222971 14.871865 -23.073852 
0.022550 84.572142 17.249555 -24.944734 
0.022550 78.186439 19.145023 -23.622988 
0.023100 66.149111 19.203535 -22.834764 
0.023450 63.096683 19.887959 -21.303483 
0.023850 60.706941 20.066741 -18.452670 
0.024450 54.726984 20.328532 -14.425207 
0.024900 54.097845 20.129733 -14.665307 
0.025300 53.494629 19.825279 -14.478845 
0.025650 53.072356 20.069193 -14.911763 
0.026000 53.481926 20.420092 -15.368486 
0.026350 55.027737 21.515378 -15.840648 
0.026850 58.844405 21.645252 -17.021840 
0.027400 62.438003 20.457498 -18.676273 
0.027850 64.799061 18.938931 -18.215238 
0.029000 75.319177 15.581259 -19.132137 
0.029800 80.534345 15.044433 -21.342580 
0.029800 80.526720 15.008374 -21.327136 
0.030400 67.618692 16.954812 -18.387371 
0.030400 67.409285 16.898114 -18.357302 
0.031750 60.142025 13.319814 -15.541808 
0.034750 56.120818 14.176624 -13.497074 
0.034750 56.192293 14.097954 -13.479496 
0.035600 50.334779 9.955213 -13.003611 
0.037050 40.476030 7.345982 -11.234007 
0.037950 38.265195 4.561254 -8.042857 
0.038650 36.417550 1.126832 -6.000407 
0.039200 35.657719 1.138654 -8.132658 
0.040000 11.487241 -2.253721 -21.398689 
0.040800 5.933192 -3.677637 -27.843888 
0.041250 5.177155 1.942421 -25.783491 
0.041850 3.443112 5.610802 -23.557521 
0.067350 -1.443115 -2.106212 0.623112 
0.067850 -1.209004 -2.050426 1.120537 
0.068550 -0.826105 -3.133930 1.756168 
0.069150 -0.996664 -2.499740 0.815697 
0.069750 -0.916959 -2.772696 1.035483 
0.070650 -0.496294 -2.744170 1.668519 
0.071350 -0.527461 -2.470825 1.332054 
0.071550 -0.502796 -2.521518 1.466929 
0.072150 -0.960613 -1.881950 0.714447 
0.072700 -0.643940 -1.296796 0.612812 
0.073300 -0.550226 -1.000198 0.150708 
0.073750 -0.564591 -0.887021 -0.024476 
0.073750 -0.564017 -0.886522 -0.024667 
